Language model created by QuickLM on Mon Jul 28 22:27:10 EDT 2014
Copyright (c) 1996-2010 Carnegie Mellon University and Alexander I. Rudnicky

The model is in standard ARPA format, designed by Doug Paul while he was at MITRE.

The code that was used to produce this language model is available in Open Source.
Please visit http://www.speech.cs.cmu.edu/tools/ for more information

The (fixed) discount mass is 0.5. The backoffs are computed using the ratio method.
This model based on a corpus of 6 sentences and 11 words

\data\
ngram 1=11
ngram 2=15
ngram 3=12

\1-grams:
-0.9208 </s> -0.3010
-0.9208 <s> -0.2455
-1.3979 ARE -0.2742
-1.6990 DAY -0.2455
-1.3979 GOOD -0.2833
-1.6990 HELLO -0.2455
-1.6990 HOW -0.2833
-1.6990 MORNING -0.2455
-1.6990 THANK -0.2742
-1.6990 WHO -0.2833
-1.2218 YOU -0.2455

\2-grams:
-0.7782 <s> GOOD 0.0000
-1.0792 <s> HELLO 0.0000
-1.0792 <s> HOW 0.0000
-1.0792 <s> THANK 0.0000
-1.0792 <s> WHO 0.0000
-0.3010 ARE YOU 0.0000
-0.3010 DAY </s> -0.3010
-0.6021 GOOD DAY 0.0000
-0.6021 GOOD MORNING 0.0000
-0.3010 HELLO </s> -0.3010
-0.3010 HOW ARE 0.0000
-0.3010 MORNING </s> -0.3010
-0.3010 THANK YOU 0.0000
-0.3010 WHO ARE 0.0000
-0.3010 YOU </s> -0.3010

\3-grams:
-0.6021 <s> GOOD DAY
-0.6021 <s> GOOD MORNING
-0.3010 <s> HELLO </s>
-0.3010 <s> HOW ARE
-0.3010 <s> THANK YOU
-0.3010 <s> WHO ARE
-0.3010 ARE YOU </s>
-0.3010 GOOD DAY </s>
-0.3010 GOOD MORNING </s>
-0.3010 HOW ARE YOU
-0.3010 THANK YOU </s>
-0.3010 WHO ARE YOU

\end\
