Language model created by QuickLM on Wed Jul  9 01:04:40 EDT 2014
Copyright (c) 1996-2010 Carnegie Mellon University and Alexander I. Rudnicky

The model is in standard ARPA format, designed by Doug Paul while he was at MITRE.

The code that was used to produce this language model is available in Open Source.
Please visit http://www.speech.cs.cmu.edu/tools/ for more information

The (fixed) discount mass is 0.5. The backoffs are computed using the ratio method.
This model based on a corpus of 55 sentences and 50 words

\data\
ngram 1=50
ngram 2=106
ngram 3=92

\1-grams:
-0.8703 </s> -0.3010
-0.8703 <s> -0.2154
-2.6107 ABORT -0.2381
-2.6107 AHEAD -0.2381
-2.1335 BACK -0.2357
-2.1335 BACKWARD -0.2381
-2.6107 CANCEL -0.2381
-2.0086 COME -0.2792
-2.6107 CONFIRM -0.2381
-2.6107 CONTINUE -0.2989
-2.3096 DOWN -0.2381
-2.6107 FASTER -0.2381
-2.1335 FORWARD -0.2381
-2.6107 FREEZE -0.2381
-2.6107 FULL -0.2968
-1.8325 GO -0.2747
-2.6107 HALF -0.2968
-2.6107 HALT -0.2381
-2.3096 HELP -0.2369
-2.6107 KILL -0.2381
-1.7656 LEFT -0.2381
-2.6107 ME -0.2381
-1.9117 MOVE -0.2758
-2.6107 MOVING -0.2381
-2.6107 NEGATIVE -0.2381
-2.6107 NO -0.2381
-2.6107 NOW -0.2381
-2.6107 OFF -0.2381
-2.6107 PANIC -0.2381
-2.6107 PAUSE -0.2989
-2.6107 PLEASE -0.2978
-2.6107 POSITIVE -0.2381
-2.6107 QUARTER -0.2968
-2.6107 REVERSE -0.2381
-1.7656 RIGHT -0.2381
-2.6107 ROBOT -0.2381
-2.3096 ROTATE -0.2859
-2.6107 SHUT -0.2989
-2.6107 SLOW -0.2989
-2.6107 SLOWER -0.2381
-2.3096 SPEECH -0.2381
-2.0086 SPEED -0.2357
-2.6107 START -0.2381
-2.1335 STOP -0.2357
-2.6107 STRAIGHT -0.2381
-2.3096 THE -0.2859
-2.3096 TO -0.2989
-1.9117 TURN -0.2825
-2.3096 UP -0.2381
-2.6107 YES -0.2381

\2-grams:
-2.0414 <s> ABORT 0.0000
-2.0414 <s> AHEAD 0.0000
-2.0414 <s> BACK -0.2218
-2.0414 <s> CANCEL 0.0000
-1.4393 <s> COME 0.0000
-2.0414 <s> CONFIRM 0.0000
-2.0414 <s> CONTINUE 0.0000
-2.0414 <s> FASTER 0.0000
-2.0414 <s> FREEZE 0.0000
-2.0414 <s> FULL 0.0000
-1.2632 <s> GO 0.0000
-2.0414 <s> HALF 0.0000
-2.0414 <s> HALT 0.0000
-1.7404 <s> HELP 0.0000
-2.0414 <s> KILL 0.0000
-2.0414 <s> LEFT 0.0000
-1.3424 <s> MOVE 0.0000
-2.0414 <s> NEGATIVE 0.0000
-2.0414 <s> NO 0.0000
-2.0414 <s> PANIC 0.0000
-2.0414 <s> PAUSE 0.0000
-2.0414 <s> PLEASE 0.0000
-2.0414 <s> POSITIVE 0.0000
-2.0414 <s> QUARTER 0.0000
-2.0414 <s> REVERSE 0.0000
-2.0414 <s> RIGHT 0.0000
-2.0414 <s> ROBOT 0.0000
-1.7404 <s> ROTATE 0.0000
-2.0414 <s> SHUT 0.0000
-2.0414 <s> SLOW 0.0000
-2.0414 <s> SLOWER 0.0000
-2.0414 <s> SPEED -0.2430
-2.0414 <s> START 0.0000
-1.7404 <s> STOP -0.1249
-1.3424 <s> TURN 0.0000
-2.0414 <s> YES 0.0000
-0.3010 ABORT </s> -0.3010
-0.3010 AHEAD </s> -0.3010
-0.4771 BACK </s> -0.3010
-0.7782 BACK UP 0.0000
-0.3010 BACKWARD </s> -0.3010
-0.3010 CANCEL </s> -0.3010
-0.9031 COME BACKWARD 0.0000
-0.9031 COME FORWARD 0.0000
-0.9031 COME LEFT 0.0000
-0.9031 COME RIGHT 0.0000
-0.3010 CONFIRM </s> -0.3010
-0.3010 CONTINUE SPEECH 0.0000
-0.3010 DOWN </s> -0.3010
-0.3010 FASTER </s> -0.3010
-0.3010 FORWARD </s> -0.3010
-0.3010 FREEZE </s> -0.3010
-0.3010 FULL SPEED -0.0969
-1.0792 GO BACK -0.1249
-1.0792 GO BACKWARD 0.0000
-1.0792 GO FORWARD 0.0000
-1.0792 GO LEFT 0.0000
-1.0792 GO RIGHT 0.0000
-1.0792 GO STRAIGHT 0.0000
-0.3010 HALF SPEED -0.0969
-0.3010 HALT </s> -0.3010
-0.6021 HELP </s> -0.3010
-0.6021 HELP ME 0.0000
-0.3010 KILL </s> -0.3010
-0.3010 LEFT </s> -0.3010
-0.3010 ME </s> -0.3010
-1.0000 MOVE BACK -0.1249
-1.0000 MOVE BACKWARD 0.0000
-1.0000 MOVE FORWARD 0.0000
-1.0000 MOVE LEFT 0.0000
-1.0000 MOVE RIGHT 0.0000
-0.3010 MOVING </s> -0.3010
-0.3010 NEGATIVE </s> -0.3010
-0.3010 NO </s> -0.3010
-0.3010 NOW </s> -0.3010
-0.3010 OFF </s> -0.3010
-0.3010 PANIC </s> -0.3010
-0.3010 PAUSE SPEECH 0.0000
-0.3010 PLEASE STOP -0.2218
-0.3010 POSITIVE </s> -0.3010
-0.3010 QUARTER SPEED -0.0969
-0.3010 REVERSE </s> -0.3010
-0.3010 RIGHT </s> -0.3010
-0.3010 ROBOT </s> -0.3010
-0.6021 ROTATE LEFT 0.0000
-0.6021 ROTATE RIGHT 0.0000
-0.3010 SHUT DOWN 0.0000
-0.3010 SLOW DOWN 0.0000
-0.3010 SLOWER </s> -0.3010
-0.3010 SPEECH </s> -0.3010
-0.4260 SPEED </s> -0.3010
-0.9031 SPEED UP 0.0000
-0.3010 START </s> -0.3010
-0.7782 STOP </s> -0.3010
-0.7782 STOP MOVING 0.0000
-0.7782 STOP NOW 0.0000
-0.3010 STRAIGHT </s> -0.3010
-0.6021 THE LEFT 0.0000
-0.6021 THE RIGHT 0.0000
-0.3010 TO THE 0.0000
-1.0000 TURN LEFT 0.0000
-1.0000 TURN OFF 0.0000
-1.0000 TURN RIGHT 0.0000
-0.6990 TURN TO 0.0000
-0.3010 UP </s> -0.3010
-0.3010 YES </s> -0.3010

\3-grams:
-0.3010 <s> ABORT </s>
-0.3010 <s> AHEAD </s>
-0.3010 <s> BACK UP
-0.3010 <s> CANCEL </s>
-0.9031 <s> COME BACKWARD
-0.9031 <s> COME FORWARD
-0.9031 <s> COME LEFT
-0.9031 <s> COME RIGHT
-0.3010 <s> CONFIRM </s>
-0.3010 <s> CONTINUE SPEECH
-0.3010 <s> FASTER </s>
-0.3010 <s> FREEZE </s>
-0.3010 <s> FULL SPEED
-1.0792 <s> GO BACK
-1.0792 <s> GO BACKWARD
-1.0792 <s> GO FORWARD
-1.0792 <s> GO LEFT
-1.0792 <s> GO RIGHT
-1.0792 <s> GO STRAIGHT
-0.3010 <s> HALF SPEED
-0.3010 <s> HALT </s>
-0.6021 <s> HELP </s>
-0.6021 <s> HELP ME
-0.3010 <s> KILL </s>
-0.3010 <s> LEFT </s>
-1.0000 <s> MOVE BACK
-1.0000 <s> MOVE BACKWARD
-1.0000 <s> MOVE FORWARD
-1.0000 <s> MOVE LEFT
-1.0000 <s> MOVE RIGHT
-0.3010 <s> NEGATIVE </s>
-0.3010 <s> NO </s>
-0.3010 <s> PANIC </s>
-0.3010 <s> PAUSE SPEECH
-0.3010 <s> PLEASE STOP
-0.3010 <s> POSITIVE </s>
-0.3010 <s> QUARTER SPEED
-0.3010 <s> REVERSE </s>
-0.3010 <s> RIGHT </s>
-0.3010 <s> ROBOT </s>
-0.6021 <s> ROTATE LEFT
-0.6021 <s> ROTATE RIGHT
-0.3010 <s> SHUT DOWN
-0.3010 <s> SLOW DOWN
-0.3010 <s> SLOWER </s>
-0.3010 <s> SPEED UP
-0.3010 <s> START </s>
-0.6021 <s> STOP </s>
-0.6021 <s> STOP NOW
-1.0000 <s> TURN LEFT
-1.0000 <s> TURN OFF
-1.0000 <s> TURN RIGHT
-0.6990 <s> TURN TO
-0.3010 <s> YES </s>
-0.3010 BACK UP </s>
-0.3010 COME BACKWARD </s>
-0.3010 COME FORWARD </s>
-0.3010 COME LEFT </s>
-0.3010 COME RIGHT </s>
-0.3010 CONTINUE SPEECH </s>
-0.3010 FULL SPEED </s>
-0.3010 GO BACK </s>
-0.3010 GO BACKWARD </s>
-0.3010 GO FORWARD </s>
-0.3010 GO LEFT </s>
-0.3010 GO RIGHT </s>
-0.3010 GO STRAIGHT </s>
-0.3010 HALF SPEED </s>
-0.3010 HELP ME </s>
-0.3010 MOVE BACK </s>
-0.3010 MOVE BACKWARD </s>
-0.3010 MOVE FORWARD </s>
-0.3010 MOVE LEFT </s>
-0.3010 MOVE RIGHT </s>
-0.3010 PAUSE SPEECH </s>
-0.3010 PLEASE STOP MOVING
-0.3010 QUARTER SPEED </s>
-0.3010 ROTATE LEFT </s>
-0.3010 ROTATE RIGHT </s>
-0.3010 SHUT DOWN </s>
-0.3010 SLOW DOWN </s>
-0.3010 SPEED UP </s>
-0.3010 STOP MOVING </s>
-0.3010 STOP NOW </s>
-0.3010 THE LEFT </s>
-0.3010 THE RIGHT </s>
-0.6021 TO THE LEFT
-0.6021 TO THE RIGHT
-0.3010 TURN LEFT </s>
-0.3010 TURN OFF </s>
-0.3010 TURN RIGHT </s>
-0.3010 TURN TO THE

\end\
